digraph Tree {
node [shape=box] ;
0 [label="X[52] <= 0.056\ngini = 0.474\nsamples = 3680\nvalue = [2257, 1423]"] ;
1 [label="X[6] <= 0.065\ngini = 0.35\nsamples = 2779\nvalue = [2150, 629]"] ;
0 -> 1 [labeldistance=2.5, labelangle=45, headlabel="True"] ;
2 [label="X[51] <= 0.251\ngini = 0.265\nsamples = 2523\nvalue = [2127, 396]"] ;
1 -> 2 ;
3 [label="X[15] <= 0.04\ngini = 0.155\nsamples = 2101\nvalue = [1923, 178]"] ;
2 -> 3 ;
4 [label="X[23] <= 0.02\ngini = 0.109\nsamples = 1882\nvalue = [1773, 109]"] ;
3 -> 4 ;
5 [label="X[54] <= 20.714\ngini = 0.096\nsamples = 1844\nvalue = [1751, 93]"] ;
4 -> 5 ;
6 [label="X[24] <= 0.015\ngini = 0.092\nsamples = 1839\nvalue = [1750, 89]"] ;
5 -> 6 ;
7 [label="X[55] <= 10.5\ngini = 0.137\nsamples = 1162\nvalue = [1076, 86]"] ;
6 -> 7 ;
8 [label="gini = 0.074\nsamples = 810\nvalue = [779, 31]"] ;
7 -> 8 ;
9 [label="gini = 0.264\nsamples = 352\nvalue = [297, 55]"] ;
7 -> 9 ;
10 [label="X[10] <= 1.13\ngini = 0.009\nsamples = 677\nvalue = [674, 3]"] ;
6 -> 10 ;
11 [label="gini = 0.003\nsamples = 675\nvalue = [674, 1]"] ;
10 -> 11 ;
12 [label="gini = 0.0\nsamples = 2\nvalue = [0, 2]"] ;
10 -> 12 ;
13 [label="X[56] <= 125.0\ngini = 0.32\nsamples = 5\nvalue = [1, 4]"] ;
5 -> 13 ;
14 [label="gini = 0.0\nsamples = 1\nvalue = [1, 0]"] ;
13 -> 14 ;
15 [label="gini = 0.0\nsamples = 4\nvalue = [0, 4]"] ;
13 -> 15 ;
16 [label="X[54] <= 3.424\ngini = 0.488\nsamples = 38\nvalue = [22, 16]"] ;
4 -> 16 ;
17 [label="X[17] <= 0.585\ngini = 0.375\nsamples = 28\nvalue = [21, 7]"] ;
16 -> 17 ;
18 [label="X[55] <= 58.5\ngini = 0.269\nsamples = 25\nvalue = [21, 4]"] ;
17 -> 18 ;
19 [label="gini = 0.159\nsamples = 23\nvalue = [21, 2]"] ;
18 -> 19 ;
20 [label="gini = 0.0\nsamples = 2\nvalue = [0, 2]"] ;
18 -> 20 ;
21 [label="gini = 0.0\nsamples = 3\nvalue = [0, 3]"] ;
17 -> 21 ;
22 [label="X[48] <= 0.294\ngini = 0.18\nsamples = 10\nvalue = [1, 9]"] ;
16 -> 22 ;
23 [label="gini = 0.0\nsamples = 9\nvalue = [0, 9]"] ;
22 -> 23 ;
24 [label="gini = 0.0\nsamples = 1\nvalue = [1, 0]"] ;
22 -> 24 ;
25 [label="X[24] <= 0.075\ngini = 0.432\nsamples = 219\nvalue = [150, 69]"] ;
3 -> 25 ;
26 [label="X[4] <= 0.01\ngini = 0.488\nsamples = 159\nvalue = [92, 67]"] ;
25 -> 26 ;
27 [label="X[48] <= 0.041\ngini = 0.393\nsamples = 93\nvalue = [68, 25]"] ;
26 -> 27 ;
28 [label="X[15] <= 4.38\ngini = 0.301\nsamples = 76\nvalue = [62, 14]"] ;
27 -> 28 ;
29 [label="gini = 0.23\nsamples = 68\nvalue = [59, 9]"] ;
28 -> 29 ;
30 [label="gini = 0.469\nsamples = 8\nvalue = [3, 5]"] ;
28 -> 30 ;
31 [label="X[56] <= 71.5\ngini = 0.457\nsamples = 17\nvalue = [6, 11]"] ;
27 -> 31 ;
32 [label="gini = 0.0\nsamples = 5\nvalue = [5, 0]"] ;
31 -> 32 ;
33 [label="gini = 0.153\nsamples = 12\nvalue = [1, 11]"] ;
31 -> 33 ;
34 [label="X[26] <= 0.005\ngini = 0.463\nsamples = 66\nvalue = [24, 42]"] ;
26 -> 34 ;
35 [label="X[12] <= 0.6\ngini = 0.41\nsamples = 59\nvalue = [17, 42]"] ;
34 -> 35 ;
36 [label="gini = 0.361\nsamples = 55\nvalue = [13, 42]"] ;
35 -> 36 ;
37 [label="gini = 0.0\nsamples = 4\nvalue = [4, 0]"] ;
35 -> 37 ;
38 [label="gini = 0.0\nsamples = 7\nvalue = [7, 0]"] ;
34 -> 38 ;
39 [label="X[55] <= 2.5\ngini = 0.064\nsamples = 60\nvalue = [58, 2]"] ;
25 -> 39 ;
40 [label="gini = 0.0\nsamples = 1\nvalue = [0, 1]"] ;
39 -> 40 ;
41 [label="X[20] <= 3.15\ngini = 0.033\nsamples = 59\nvalue = [58, 1]"] ;
39 -> 41 ;
42 [label="gini = 0.0\nsamples = 58\nvalue = [58, 0]"] ;
41 -> 42 ;
43 [label="gini = 0.0\nsamples = 1\nvalue = [0, 1]"] ;
41 -> 43 ;
44 [label="X[54] <= 2.654\ngini = 0.499\nsamples = 422\nvalue = [204, 218]"] ;
2 -> 44 ;
45 [label="X[15] <= 0.065\ngini = 0.406\nsamples = 237\nvalue = [170, 67]"] ;
44 -> 45 ;
46 [label="X[16] <= 0.225\ngini = 0.285\nsamples = 186\nvalue = [154, 32]"] ;
45 -> 46 ;
47 [label="X[8] <= 0.22\ngini = 0.189\nsamples = 170\nvalue = [152, 18]"] ;
46 -> 47 ;
48 [label="X[51] <= 0.807\ngini = 0.146\nsamples = 164\nvalue = [151, 13]"] ;
47 -> 48 ;
49 [label="gini = 0.032\nsamples = 122\nvalue = [120, 2]"] ;
48 -> 49 ;
50 [label="gini = 0.387\nsamples = 42\nvalue = [31, 11]"] ;
48 -> 50 ;
51 [label="X[38] <= 0.29\ngini = 0.278\nsamples = 6\nvalue = [1, 5]"] ;
47 -> 51 ;
52 [label="gini = 0.0\nsamples = 5\nvalue = [0, 5]"] ;
51 -> 52 ;
53 [label="gini = 0.0\nsamples = 1\nvalue = [1, 0]"] ;
51 -> 53 ;
54 [label="X[24] <= 0.58\ngini = 0.219\nsamples = 16\nvalue = [2, 14]"] ;
46 -> 54 ;
55 [label="gini = 0.0\nsamples = 14\nvalue = [0, 14]"] ;
54 -> 55 ;
56 [label="gini = 0.0\nsamples = 2\nvalue = [2, 0]"] ;
54 -> 56 ;
57 [label="X[51] <= 0.46\ngini = 0.431\nsamples = 51\nvalue = [16, 35]"] ;
45 -> 57 ;
58 [label="X[7] <= 0.68\ngini = 0.483\nsamples = 22\nvalue = [13, 9]"] ;
57 -> 58 ;
59 [label="X[55] <= 4.5\ngini = 0.305\nsamples = 16\nvalue = [13, 3]"] ;
58 -> 59 ;
60 [label="gini = 0.375\nsamples = 4\nvalue = [1, 3]"] ;
59 -> 60 ;
61 [label="gini = 0.0\nsamples = 12\nvalue = [12, 0]"] ;
59 -> 61 ;
62 [label="gini = 0.0\nsamples = 6\nvalue = [0, 6]"] ;
58 -> 62 ;
63 [label="X[8] <= 0.5\ngini = 0.185\nsamples = 29\nvalue = [3, 26]"] ;
57 -> 63 ;
64 [label="X[15] <= 0.285\ngini = 0.133\nsamples = 28\nvalue = [2, 26]"] ;
63 -> 64 ;
65 [label="gini = 0.0\nsamples = 1\nvalue = [1, 0]"] ;
64 -> 65 ;
66 [label="gini = 0.071\nsamples = 27\nvalue = [1, 26]"] ;
64 -> 66 ;
67 [label="gini = 0.0\nsamples = 1\nvalue = [1, 0]"] ;
63 -> 67 ;
68 [label="X[34] <= 0.26\ngini = 0.3\nsamples = 185\nvalue = [34, 151]"] ;
44 -> 68 ;
69 [label="X[38] <= 0.445\ngini = 0.244\nsamples = 176\nvalue = [25, 151]"] ;
68 -> 69 ;
70 [label="X[11] <= 2.37\ngini = 0.207\nsamples = 171\nvalue = [20, 151]"] ;
69 -> 70 ;
71 [label="X[44] <= 0.595\ngini = 0.174\nsamples = 166\nvalue = [16, 150]"] ;
70 -> 71 ;
72 [label="gini = 0.121\nsamples = 154\nvalue = [10, 144]"] ;
71 -> 72 ;
73 [label="gini = 0.5\nsamples = 12\nvalue = [6, 6]"] ;
71 -> 73 ;
74 [label="X[51] <= 1.0\ngini = 0.32\nsamples = 5\nvalue = [4, 1]"] ;
70 -> 74 ;
75 [label="gini = 0.0\nsamples = 4\nvalue = [4, 0]"] ;
74 -> 75 ;
76 [label="gini = 0.0\nsamples = 1\nvalue = [0, 1]"] ;
74 -> 76 ;
77 [label="gini = 0.0\nsamples = 5\nvalue = [5, 0]"] ;
69 -> 77 ;
78 [label="gini = 0.0\nsamples = 9\nvalue = [9, 0]"] ;
68 -> 78 ;
79 [label="X[26] <= 0.15\ngini = 0.164\nsamples = 256\nvalue = [23, 233]"] ;
1 -> 79 ;
80 [label="X[45] <= 0.115\ngini = 0.1\nsamples = 246\nvalue = [13, 233]"] ;
79 -> 80 ;
81 [label="X[32] <= 1.505\ngini = 0.072\nsamples = 240\nvalue = [9, 231]"] ;
80 -> 81 ;
82 [label="X[9] <= 2.46\ngini = 0.065\nsamples = 239\nvalue = [8, 231]"] ;
81 -> 82 ;
83 [label="X[24] <= 0.3\ngini = 0.057\nsamples = 238\nvalue = [7, 231]"] ;
82 -> 83 ;
84 [label="X[52] <= 0.048\ngini = 0.042\nsamples = 233\nvalue = [5, 228]"] ;
83 -> 84 ;
85 [label="gini = 0.026\nsamples = 225\nvalue = [3, 222]"] ;
84 -> 85 ;
86 [label="gini = 0.375\nsamples = 8\nvalue = [2, 6]"] ;
84 -> 86 ;
87 [label="X[55] <= 22.5\ngini = 0.48\nsamples = 5\nvalue = [2, 3]"] ;
83 -> 87 ;
88 [label="gini = 0.444\nsamples = 3\nvalue = [2, 1]"] ;
87 -> 88 ;
89 [label="gini = 0.0\nsamples = 2\nvalue = [0, 2]"] ;
87 -> 89 ;
90 [label="gini = 0.0\nsamples = 1\nvalue = [1, 0]"] ;
82 -> 90 ;
91 [label="gini = 0.0\nsamples = 1\nvalue = [1, 0]"] ;
81 -> 91 ;
92 [label="X[9] <= 0.575\ngini = 0.444\nsamples = 6\nvalue = [4, 2]"] ;
80 -> 92 ;
93 [label="gini = 0.0\nsamples = 4\nvalue = [4, 0]"] ;
92 -> 93 ;
94 [label="gini = 0.0\nsamples = 2\nvalue = [0, 2]"] ;
92 -> 94 ;
95 [label="gini = 0.0\nsamples = 10\nvalue = [10, 0]"] ;
79 -> 95 ;
96 [label="X[24] <= 0.4\ngini = 0.209\nsamples = 901\nvalue = [107, 794]"] ;
0 -> 96 [labeldistance=2.5, labelangle=-45, headlabel="False"] ;
97 [label="X[55] <= 6.5\ngini = 0.13\nsamples = 846\nvalue = [59, 787]"] ;
96 -> 97 ;
98 [label="X[6] <= 0.51\ngini = 0.34\nsamples = 23\nvalue = [18, 5]"] ;
97 -> 98 ;
99 [label="X[18] <= 5.22\ngini = 0.1\nsamples = 19\nvalue = [18, 1]"] ;
98 -> 99 ;
100 [label="gini = 0.0\nsamples = 18\nvalue = [18, 0]"] ;
99 -> 100 ;
101 [label="gini = 0.0\nsamples = 1\nvalue = [0, 1]"] ;
99 -> 101 ;
102 [label="gini = 0.0\nsamples = 4\nvalue = [0, 4]"] ;
98 -> 102 ;
103 [label="X[45] <= 0.7\ngini = 0.095\nsamples = 823\nvalue = [41, 782]"] ;
97 -> 103 ;
104 [label="X[26] <= 0.21\ngini = 0.076\nsamples = 814\nvalue = [32, 782]"] ;
103 -> 104 ;
105 [label="X[47] <= 0.525\ngini = 0.065\nsamples = 809\nvalue = [27, 782]"] ;
104 -> 105 ;
106 [label="X[25] <= 0.16\ngini = 0.06\nsamples = 807\nvalue = [25, 782]"] ;
105 -> 106 ;
107 [label="X[45] <= 0.225\ngini = 0.053\nsamples = 802\nvalue = [22, 780]"] ;
106 -> 107 ;
108 [label="gini = 0.047\nsamples = 794\nvalue = [19, 775]"] ;
107 -> 108 ;
109 [label="gini = 0.469\nsamples = 8\nvalue = [3, 5]"] ;
107 -> 109 ;
110 [label="X[51] <= 0.095\ngini = 0.48\nsamples = 5\nvalue = [3, 2]"] ;
106 -> 110 ;
111 [label="gini = 0.0\nsamples = 3\nvalue = [3, 0]"] ;
110 -> 111 ;
112 [label="gini = 0.0\nsamples = 2\nvalue = [0, 2]"] ;
110 -> 112 ;
113 [label="gini = 0.0\nsamples = 2\nvalue = [2, 0]"] ;
105 -> 113 ;
114 [label="gini = 0.0\nsamples = 5\nvalue = [5, 0]"] ;
104 -> 114 ;
115 [label="gini = 0.0\nsamples = 9\nvalue = [9, 0]"] ;
103 -> 115 ;
116 [label="X[6] <= 0.075\ngini = 0.222\nsamples = 55\nvalue = [48, 7]"] ;
96 -> 116 ;
117 [label="X[22] <= 1.275\ngini = 0.04\nsamples = 49\nvalue = [48, 1]"] ;
116 -> 117 ;
118 [label="gini = 0.0\nsamples = 48\nvalue = [48, 0]"] ;
117 -> 118 ;
119 [label="gini = 0.0\nsamples = 1\nvalue = [0, 1]"] ;
117 -> 119 ;
120 [label="gini = 0.0\nsamples = 6\nvalue = [0, 6]"] ;
116 -> 120 ;
}